#pragma once
namespace Eloquent {
    namespace ML {
        namespace Port {
            class SVM {
                public:
                    /**
                    * Predict class for features vector
                    */
                    int predict(float *x) {
                        float kernels[1071] = { 0 };
                        float decisions[6] = { 0 };
                        int votes[4] = { 0 };
                        kernels[0] = compute_kernel(x,   0.0  , 1.0  , 2.0 );
                        kernels[1] = compute_kernel(x,   -0.259420217749  , 0.516079130172  , -0.644499067712 );
                        kernels[2] = compute_kernel(x,   1.020583712899  , 1.326705074486  , -1.737555023907 );
                        kernels[3] = compute_kernel(x,   -1.688308631852  , -1.804396891707  , 1.323001653438 );
                        kernels[4] = compute_kernel(x,   -0.607167456293  , -0.365654353116  , -0.189059085965 );
                        kernels[5] = compute_kernel(x,   -0.620996820424  , -0.699859786298  , 0.096349969264 );
                        kernels[6] = compute_kernel(x,   -0.192242768572  , -0.925033659718  , 1.128680594558 );
                        kernels[7] = compute_kernel(x,   1.395289458735  , 0.032547865143  , 0.041697171454 );
                        kernels[8] = compute_kernel(x,   -0.269660949415  , 0.440231088599  , -0.510903339733 );
                        kernels[9] = compute_kernel(x,   -1.953954961825  , -1.645590054663  , 1.748078969735 );
                        kernels[10] = compute_kernel(x,   -0.177756947283  , -1.041175973377  , 1.159043260008 );
                        kernels[11] = compute_kernel(x,   1.487718626594  , 1.17263874004  , -0.990633453841 );
                        kernels[12] = compute_kernel(x,   -0.993339320491  , 0.219797717777  , 0.77647367534 );
                        kernels[13] = compute_kernel(x,   1.431919768157  , 0.596667674344  , -0.407670277204 );
                        kernels[14] = compute_kernel(x,   1.52224827311  , 0.305126764547  , -0.268002016134 );
                        kernels[15] = compute_kernel(x,   1.472094946232  , 1.487882162829  , -1.19102704581 );
                        kernels[16] = compute_kernel(x,   -1.668746208541  , -1.628998295569  , 1.365509385067 );
                        kernels[17] = compute_kernel(x,   1.512707762412  , 0.94746486662  , -0.826675060412 );
                        kernels[18] = compute_kernel(x,   1.519928791151  , 0.35253179053  , -0.328727347034 );
                        kernels[19] = compute_kernel(x,   0.829598443707  , -1.960833477452  , 0.454629421572 );
                        kernels[20] = compute_kernel(x,   1.021021351005  , 0.866876322448  , -1.458218501768 );
                        kernels[21] = compute_kernel(x,   -0.177581892041  , -0.280325306346  , -0.000810560176 );
                        kernels[22] = compute_kernel(x,   1.368287187633  , 1.945340663567  , -1.543233965028 );
                        kernels[23] = compute_kernel(x,   -0.545110372949  , 0.447341842497  , -0.826675060412 );
                        kernels[24] = compute_kernel(x,   1.040014844779  , 1.163157734844  , -1.646467027557 );
                        kernels[25] = compute_kernel(x,   0.7535807048  , 0.74836375749  , -1.561451564298 );
                        kernels[26] = compute_kernel(x,   1.030649389323  , 1.182119745237  , -1.652539560647 );
                        kernels[27] = compute_kernel(x,   -1.549052186717  , -1.892096189776  , 1.578048043216 );
                        kernels[28] = compute_kernel(x,   1.461591631702  , 1.587432717394  , -1.336767839969 );
                        kernels[29] = compute_kernel(x,   -0.626073422446  , -0.619271242126  , 0.005261972914 );
                        kernels[30] = compute_kernel(x,   1.029467766439  , 1.222414017323  , -1.688974759187 );
                        kernels[31] = compute_kernel(x,   -1.509183355315  , -1.432267437739  , 1.687353638836 );
                        kernels[32] = compute_kernel(x,   -0.619990252781  , -0.46757515898  , -0.134406288155 );
                        kernels[33] = compute_kernel(x,   -0.407429424993  , 0.734142249695  , -1.06350385092 );
                        kernels[34] = compute_kernel(x,   -0.009703914813  , -0.851555869444  , 1.134753127648 );
                        kernels[35] = compute_kernel(x,   0.698569594952  , 0.134468671007  , -1.014923586201 );
                        kernels[36] = compute_kernel(x,   1.303604275656  , 1.691723774557  , -1.531088898848 );
                        kernels[37] = compute_kernel(x,   -0.010973065319  , -1.256868841601  , 1.110462995289 );
                        kernels[38] = compute_kernel(x,   0.936951070959  , 0.518449381472  , -1.13030171491 );
                        kernels[39] = compute_kernel(x,   -0.270667517058  , 0.077582639828  , -0.249784416864 );
                        kernels[40] = compute_kernel(x,   1.514458314834  , 0.755474511388  , -0.638426534623 );
                        kernels[41] = compute_kernel(x,   -1.240823669089  , 0.504227873677  , 0.612515281911 );
                        kernels[42] = compute_kernel(x,   -0.629180652994  , -0.763856571375  , 0.181365432523 );
                        kernels[43] = compute_kernel(x,   -0.630931205416  , -1.010362706488  , 0.533572351742 );
                        kernels[44] = compute_kernel(x,   1.498965925903  , 1.035164164689  , -0.893472924401 );
                        kernels[45] = compute_kernel(x,   1.394282891093  , 0.030177613844  , 0.041697171454 );
                        kernels[46] = compute_kernel(x,   -0.59311927311  , -0.249512039457  , -0.365162545574 );
                        kernels[47] = compute_kernel(x,   -0.642484851398  , -1.036435470779  , 0.545717417921 );
                        kernels[48] = compute_kernel(x,   -0.992901682385  , 0.302756513248  , 0.727893410621 );
                        kernels[49] = compute_kernel(x,   -0.624585452888  , -0.856296372042  , 0.254235829603 );
                        kernels[50] = compute_kernel(x,   -0.944192561255  , 0.160541435298  , 0.970794734219 );
                        kernels[51] = compute_kernel(x,   -0.59066849972  , -0.166553243986  , -0.462323075013 );
                        kernels[52] = compute_kernel(x,   1.132750359311  , 1.385961356965  , -1.931876082786 );
                        kernels[53] = compute_kernel(x,   -0.249660887999  , -0.415429630398  , 0.047769704544 );
                        kernels[54] = compute_kernel(x,   1.444830092266  , 1.720166790147  , -1.409638237049 );
                        kernels[55] = compute_kernel(x,   -0.60528561244  , -0.289806311543  , -0.261929483044 );
                        kernels[56] = compute_kernel(x,   -0.426641737819  , -0.548163703151  , 1.146898193828 );
                        kernels[57] = compute_kernel(x,   -0.221652049254  , -0.413059379099  , 0.029552105274 );
                        kernels[58] = compute_kernel(x,   1.429162648093  , 0.696218228909  , -0.589846269903 );
                        kernels[59] = compute_kernel(x,   -0.129091589964  , -0.213958269969  , -0.116188688885 );
                        kernels[60] = compute_kernel(x,   0.886753980271  , -1.759362117023  , 0.296743561233 );
                        kernels[61] = compute_kernel(x,   0.74622838463  , 0.743623254892  , -1.555379031208 );
                        kernels[62] = compute_kernel(x,   -0.333293529939  , -0.740154058383  , 1.195478458548 );
                        kernels[63] = compute_kernel(x,   1.466755761346  , 1.376480351768  , -1.0756489171 );
                        kernels[64] = compute_kernel(x,   1.476558854907  , 1.575581460898  , -1.415710770139 );
                        kernels[65] = compute_kernel(x,   -0.260864423497  , 0.340680534035  , -0.431960409564 );
                        kernels[66] = compute_kernel(x,   -0.542134433832  , 0.452082345095  , -0.978488387661 );
                        kernels[67] = compute_kernel(x,   1.35423900445  , 1.976153930456  , -1.573596630478 );
                        kernels[68] = compute_kernel(x,   1.12618578773  , -1.877874681981  , 0.242090763423 );
                        kernels[69] = compute_kernel(x,   -1.511371545842  , -0.877628633735  , 1.772369102095 );
                        kernels[70] = compute_kernel(x,   1.430388034788  , -0.038559673831  , 0.005261972914 );
                        kernels[71] = compute_kernel(x,   -0.400777325791  , 0.731771998396  , -1.06957638401 );
                        kernels[72] = compute_kernel(x,   0.96706057261  , -2.015349257333  , 0.946504601859 );
                        kernels[73] = compute_kernel(x,   -0.829268794779  , 0.160541435298  , 0.80683634079 );
                        kernels[74] = compute_kernel(x,   -0.125765540363  , -1.263979595498  , 1.110462995289 );
                        kernels[75] = compute_kernel(x,   -0.944717726982  , 0.046769372938  , 0.976867267309 );
                        kernels[76] = compute_kernel(x,   -1.517192132644  , -1.375381406559  , 1.669136039566 );
                        kernels[77] = compute_kernel(x,   1.033362745577  , 1.082569190672  , -1.531088898848 );
                        kernels[78] = compute_kernel(x,   -1.772291384277  , -3.404316518642  , 1.505177646137 );
                        kernels[79] = compute_kernel(x,   -0.865680285148  , 0.058620629434  , 0.934359535679 );
                        kernels[80] = compute_kernel(x,   0.954719178038  , -2.062754283316  , 0.84934407242 );
                        kernels[81] = compute_kernel(x,   -0.628261612973  , -1.022213962984  , 0.539644884831 );
                        kernels[82] = compute_kernel(x,   -0.274343677143  , 0.485265863283  , -0.571628670633 );
                        kernels[83] = compute_kernel(x,   -1.509664757231  , -1.74040010663  , 1.584120576306 );
                        kernels[84] = compute_kernel(x,   -0.559727485669  , 0.288535005453  , -0.881327858221 );
                        kernels[85] = compute_kernel(x,   1.281591078955  , 1.990375438251  , -1.792207821717 );
                        kernels[86] = compute_kernel(x,   1.519141042561  , 0.497117119779  , -0.425887876474 );
                        kernels[87] = compute_kernel(x,   0.770473535668  , -1.62662804427  , 1.140825660738 );
                        kernels[88] = compute_kernel(x,   1.421285162196  , 0.684366972413  , -0.571628670633 );
                        kernels[89] = compute_kernel(x,   -1.989666231225  , -1.877874681981  , 1.778441635185 );
                        kernels[90] = compute_kernel(x,   -1.4941723683  , -0.979549439599  , 1.778441635185 );
                        kernels[91] = compute_kernel(x,   1.443867288434  , 1.013831902997  , -0.741659597152 );
                        kernels[92] = compute_kernel(x,   -1.515747926896  , -1.221315072113  , 1.699498705016 );
                        kernels[93] = compute_kernel(x,   1.415902213499  , -0.045670427729  , -0.000810560176 );
                        kernels[94] = compute_kernel(x,   -0.610405978273  , -0.299287316739  , -0.268002016134 );
                        kernels[95] = compute_kernel(x,   -0.259726564423  , 0.103655404118  , -0.261929483044 );
                        kernels[96] = compute_kernel(x,   -0.315175312376  , 0.686737223712  , -0.765949729512 );
                        kernels[97] = compute_kernel(x,   1.475814870127  , 1.426255629051  , -1.312477707609 );
                        kernels[98] = compute_kernel(x,   -1.070232335608  , 0.279054000256  , 0.7400384768 );
                        kernels[99] = compute_kernel(x,   1.400191005516  , 1.843419857703  , -1.470363567948 );
                        kernels[100] = compute_kernel(x,   1.489600470447  , 1.077828688074  , -0.923835589851 );
                        kernels[101] = compute_kernel(x,   0.960058362924  , -2.05090302682  , 0.78861874152 );
                        kernels[102] = compute_kernel(x,   -1.525288437594  , -1.105172758454  , 1.699498705016 );
                        kernels[103] = compute_kernel(x,   -1.26927014594  , 0.243500230769  , 0.77040114225 );
                        kernels[104] = compute_kernel(x,   1.427455859482  , 0.997240143902  , -0.772022262602 );
                        kernels[105] = compute_kernel(x,   1.459053330691  , 1.255597535511  , -1.11815664873 );
                        kernels[106] = compute_kernel(x,   0.737081748227  , -1.659811562458  , 1.274421388718 );
                        kernels[107] = compute_kernel(x,   1.390212856713  , -0.033819171233  , 0.017407039094 );
                        kernels[108] = compute_kernel(x,   -0.572287699294  , 0.174762943093  , -0.784167328782 );
                        kernels[109] = compute_kernel(x,   -0.176225213914  , -0.232920280363  , -0.019028159446 );
                        kernels[110] = compute_kernel(x,   0.903209173033  , -1.735659604032  , 0.314961160503 );
                        kernels[111] = compute_kernel(x,   0.723733786012  , 0.582446166549  , -1.409638237049 );
                        kernels[112] = compute_kernel(x,   0.703077267438  , 0.40941782171  , -1.20924464508 );
                        kernels[113] = compute_kernel(x,   -0.652813110686  , -1.041175973377  , 0.539644884831 );
                        kernels[114] = compute_kernel(x,   1.034019202735  , 0.973537630911  , -1.494653700308 );
                        kernels[115] = compute_kernel(x,   -0.969488043747  , 0.060990880733  , 0.970794734219 );
                        kernels[116] = compute_kernel(x,   0.956250911407  , 0.641702449028  , -1.17280944654 );
                        kernels[117] = compute_kernel(x,   1.498396996366  , 1.208192509528  , -1.014923586201 );
                        kernels[118] = compute_kernel(x,   1.486668295141  , 1.476030906333  , -1.17888197963 );
                        kernels[119] = compute_kernel(x,   1.424304865123  , 0.395196313915  , -0.255856949954 );
                        kernels[120] = compute_kernel(x,   0.897038475747  , 0.383345057419  , -1.10601158255 );
                        kernels[121] = compute_kernel(x,   1.135813826049  , 1.468920152436  , -1.944021148966 );
                        kernels[122] = compute_kernel(x,   -1.528395668142  , -1.382492160456  , 1.687353638836 );
                        kernels[123] = compute_kernel(x,   1.211875328766  , -1.619517290373  , -0.073680957255 );
                        kernels[124] = compute_kernel(x,   1.114894724611  , -1.892096189776  , 0.308888627413 );
                        kernels[125] = compute_kernel(x,   -1.534522601617  , -1.48441296632  , 1.656990973386 );
                        kernels[126] = compute_kernel(x,   -0.421215025312  , -0.533942195356  , 1.116535528379 );
                        kernels[127] = compute_kernel(x,   0.746053329387  , 0.549262648361  , -1.403565703959 );
                        kernels[128] = compute_kernel(x,   -1.786952260807  , -3.399576016043  , 1.529467778496 );
                        kernels[129] = compute_kernel(x,   -1.680606201197  , -1.756991865724  , 1.316929120348 );
                        kernels[130] = compute_kernel(x,   -1.240342267173  , 0.236389476871  , 0.79469127461 );
                        kernels[131] = compute_kernel(x,   0.972487285117  , -1.771213373519  , 1.067955263659 );
                        kernels[132] = compute_kernel(x,   -0.807561944752  , 0.082323142426  , 0.91006940332 );
                        kernels[133] = compute_kernel(x,   -1.793210485714  , -3.669784664148  , 1.590193109396 );
                        kernels[134] = compute_kernel(x,   1.448637543783  , 0.274313497658  , -0.140478821245 );
                        kernels[135] = compute_kernel(x,   -1.692291138611  , -1.574482515688  , 1.359436851977 );
                        kernels[136] = compute_kernel(x,   0.964522271599  , -1.790175383912  , 0.673240612811 );
                        kernels[137] = compute_kernel(x,   -0.129923102364  , -0.235290531662  , -0.067608424165 );
                        kernels[138] = compute_kernel(x,   -1.997062315206  , -1.681143824151  , 1.796659234455 );
                        kernels[139] = compute_kernel(x,   -0.225809611255  , -0.403578373902  , 0.035624638364 );
                        kernels[140] = compute_kernel(x,   -0.31548165905  , 0.703328982806  , -0.784167328782 );
                        kernels[141] = compute_kernel(x,   -0.581259280454  , -0.029078668635  , -0.608063869173 );
                        kernels[142] = compute_kernel(x,   1.204435480974  , 1.722537041446  , -1.834715553346 );
                        kernels[143] = compute_kernel(x,   0.0  , 1.0  , 2.0 );
                        kernels[144] = compute_kernel(x,   -0.368685072712  , 1.625903558481  , -0.402076546398 );
                        kernels[145] = compute_kernel(x,   1.717939897883  , -1.423219736519  , -0.684240399298 );
                        kernels[146] = compute_kernel(x,   -0.677765757092  , -0.498844714616  , 0.661464129917 );
                        kernels[147] = compute_kernel(x,   -1.041578147271  , -0.498844714616  , 2.81025039431 );
                        kernels[148] = compute_kernel(x,   -0.869198849569  , -0.049799976487  , 1.11726727691 );
                        kernels[149] = compute_kernel(x,   -0.931560598466  , -0.65217706422  , 1.876939188564 );
                        kernels[150] = compute_kernel(x,   -0.812548976512  , -0.658748450632  , 0.661464129917 );
                        kernels[151] = compute_kernel(x,   1.829832988008  , -1.440743433617  , -0.966404252198 );
                        kernels[152] = compute_kernel(x,   -0.434499522675  , 1.246953608743  , -0.141617605259 );
                        kernels[153] = compute_kernel(x,   -0.95257518644  , -0.84931865657  , 1.96375883561 );
                        kernels[154] = compute_kernel(x,   -0.876104251703  , -0.759509708944  , 1.312611482764 );
                        kernels[155] = compute_kernel(x,   -0.407602555106  , 1.082668948452  , -0.792764958106 );
                        kernels[156] = compute_kernel(x,   -0.851764840479  , -0.054180900761  , 1.138972188671 );
                        kernels[157] = compute_kernel(x,   -0.367789927991  , 0.773813787105  , -0.554010928729 );
                        kernels[158] = compute_kernel(x,   -0.852574733322  , -0.051990438624  , 0.878513247533 );
                        kernels[159] = compute_kernel(x,   -0.867834819518  , -0.630272442848  , 1.464545865094 );
                        kernels[160] = compute_kernel(x,   1.856303696186  , -1.136269196544  , -1.009814075721 );
                        kernels[161] = compute_kernel(x,   -0.437312834655  , 1.159335123254  , -0.944699340436 );
                        kernels[162] = compute_kernel(x,   -0.834160327633  , -0.69160538269  , 1.073857453387 );
                        kernels[163] = compute_kernel(x,   1.797266770539  , -1.464838517126  , -0.922994428675 );
                        kernels[164] = compute_kernel(x,   -0.998398070967  , -0.501035176753  , 2.376152159079 );
                        kernels[165] = compute_kernel(x,   -0.961739763345  , -0.796747565277  , 2.267627600271 );
                        kernels[166] = compute_kernel(x,   1.593727911359  , -1.217316295621  , -0.640830575775 );
                        kernels[167] = compute_kernel(x,   -0.455514110649  , 1.181239744627  , -0.944699340436 );
                        kernels[168] = compute_kernel(x,   -1.093368663272  , -0.794557103139  , 2.658316011979 );
                        kernels[169] = compute_kernel(x,   -0.380918717232  , 1.203144365999  , -0.510601105206 );
                        kernels[170] = compute_kernel(x,   -0.362120678091  , 0.938098447396  , -0.228437252306 );
                        kernels[171] = compute_kernel(x,   -0.67836252024  , -0.492273328204  , 0.596349394633 );
                        kernels[172] = compute_kernel(x,   1.634393057256  , -1.318077553933  , -0.402076546398 );
                        kernels[173] = compute_kernel(x,   -0.66987995836  , -0.468178244695  , 0.379300277017 );
                        kernels[174] = compute_kernel(x,   -1.037230301483  , -0.476940093243  , 2.788545482548 );
                        kernels[175] = compute_kernel(x,   -0.864126362817  , -0.779223868179  , 1.204086923956 );
                        kernels[176] = compute_kernel(x,   -0.846692353727  , -0.820842648786  , 1.095562365148 );
                        kernels[177] = compute_kernel(x,   -0.718899788319  , -0.658748450632  , 0.249070806448 );
                        kernels[178] = compute_kernel(x,   -0.952148927049  , -0.812080800237  , 1.855234276802 );
                        kernels[179] = compute_kernel(x,   1.534051596626  , -1.361886796677  , -0.98810916396 );
                        kernels[180] = compute_kernel(x,   -0.829812481845  , -0.717890928337  , 0.83510342401 );
                        kernels[181] = compute_kernel(x,   -0.860631035811  , -0.073895059996  , 0.813398512248 );
                        kernels[182] = compute_kernel(x,   -0.653426345869  , -0.44846408546  , 0.878513247533 );
                        kernels[183] = compute_kernel(x,   -0.870392375864  , -0.038847665801  , 1.052152541625 );
                        kernels[184] = compute_kernel(x,   1.552167620741  , -1.322458478208  , -1.031518987483 );
                        kernels[185] = compute_kernel(x,   -0.898994380997  , -0.766081095356  , 1.464545865094 );
                        kernels[186] = compute_kernel(x,   0.0  , 1.0  , 2.0 );
                        kernels[187] = compute_kernel(x,   -2.405233514366  , -1.641298870319  , 1.50963997017 );
                        kernels[188] = compute_kernel(x,   -0.141883326276  , 1.4719748076  , -0.896572487538 );
                        kernels[189] = compute_kernel(x,   0.663007819365  , 2.857800564852  , -2.568358652933 );
                        kernels[190] = compute_kernel(x,   1.152339775162  , 0.53949670117  , -1.775951337544 );
                        kernels[191] = compute_kernel(x,   -0.315571695546  , -1.60262466314  , 0.601270608625 );
                        kernels[192] = compute_kernel(x,   0.651051622906  , 3.085548673796  , -3.003216326013 );
                        kernels[193] = compute_kernel(x,   -0.166695950458  , 1.431152033355  , -0.770946937537 );
                        kernels[194] = compute_kernel(x,   -0.509262078187  , 0.245143013196  , 0.659251631703 );
                        kernels[195] = compute_kernel(x,   -1.713884036748  , -1.295379572773  , 1.470985954785 );
                        kernels[196] = compute_kernel(x,   0.409789644471  , 0.406285543109  , -0.809600952922 );
                        kernels[197] = compute_kernel(x,   2.228791307678  , -0.71311789802  , 0.514299074009 );
                        kernels[198] = compute_kernel(x,   -1.512372895011  , -0.6894836603  , 1.345360404784 );
                        kernels[199] = compute_kernel(x,   1.306054263288  , 0.064663379693  , -0.91589949523 );
                        kernels[200] = compute_kernel(x,   1.353232007906  , 0.573873774218  , -0.703302410614 );
                        kernels[201] = compute_kernel(x,   1.621500924226  , 1.164729717233  , -1.891913383698 );
                        kernels[202] = compute_kernel(x,   -0.727427498286  , -1.525276248782  , 1.27771587786 );
                        kernels[203] = compute_kernel(x,   -0.936506209076  , -0.846329056082  , 0.147085927853 );
                        kernels[204] = compute_kernel(x,   0.338980829204  , 2.316361664344  , -1.727633818312 );
                        kernels[205] = compute_kernel(x,   -0.185825864793  , 1.169026851364  , -0.365079775996 );
                        kernels[206] = compute_kernel(x,   -1.071737824088  , -0.339267228622  , 0.736559662472 );
                        kernels[207] = compute_kernel(x,   0.579033121881  , 1.091678437005  , -2.201145506777 );
                        kernels[208] = compute_kernel(x,   -0.062156595063  , 0.481485390401  , 0.156749431699 );
                        kernels[209] = compute_kernel(x,   1.029964587872  , -0.408021374718  , 0.514299074009 );
                        kernels[210] = compute_kernel(x,   -0.92007698853  , -0.659403721383  , 0.185739943238 );
                        kernels[211] = compute_kernel(x,   1.309767717248  , 1.050855662761  , -0.809600952922 );
                        kernels[212] = compute_kernel(x,   -0.172913172616  , 1.418260630962  , -0.761283433691 );
                        kernels[213] = compute_kernel(x,   1.074413506474  , 0.423474079633  , -1.099506068309 );
                        kernels[214] = compute_kernel(x,   -0.188807880851  , 0.341828531144  , -0.026857141379 );
                        kernels[215] = compute_kernel(x,   -1.065830056426  , 0.09474331861  , 0.514299074009 );
                        kernels[216] = compute_kernel(x,   -2.061288907515  , -2.159103533106  , 1.818872093248 );
                        kernels[217] = compute_kernel(x,   1.307545271317  , 0.999290053189  , -0.809600952922 );
                        kernels[218] = compute_kernel(x,   -0.542570634912  , -0.291998753181  , 0.939493243243 );
                        kernels[219] = compute_kernel(x,   -0.186557302694  , 1.083084168743  , -0.249117729842 );
                        kernels[220] = compute_kernel(x,   0.715193100382  , -0.569163904631  , 0.494972066317 );
                        kernels[221] = compute_kernel(x,   -0.370148215855  , -1.016065854257  , -0.413397295227 );
                        kernels[222] = compute_kernel(x,   -0.289661914513  , 0.513713896384  , -1.698643306774 );
                        kernels[223] = compute_kernel(x,   0.592986706454  , 0.427771213764  , 0.040787385545 );
                        kernels[224] = compute_kernel(x,   2.321768317792  , -0.5648667705  , 0.195403447084 );
                        kernels[225] = compute_kernel(x,   0.332116565825  , 2.488247029585  , -1.882249879852 );
                        kernels[226] = compute_kernel(x,   -1.697989328514  , -0.865666159671  , 1.606275008632 );
                        kernels[227] = compute_kernel(x,   -0.185150691345  , 0.608250847266  , 0.108431912468 );
                        kernels[228] = compute_kernel(x,   0.293519150432  , 0.30530289103  , -0.732292922152 );
                        kernels[229] = compute_kernel(x,   1.170006813695  , 1.28075233877  , -3.389756479861 );
                        kernels[230] = compute_kernel(x,   1.847008855562  , -0.831289086623  , 0.398337027855 );
                        kernels[231] = compute_kernel(x,   -0.110009513127  , 1.441894868683  , -0.63565788369 );
                        kernels[232] = compute_kernel(x,   -0.937406440339  , -0.897894665654  , 0.127758920161 );
                        kernels[233] = compute_kernel(x,   -0.278043304778  , -1.258853932659  , 0.668915135549 );
                        kernels[234] = compute_kernel(x,   0.819366736826  , -2.453457221081  , 1.084445800936 );
                        kernels[235] = compute_kernel(x,   1.160216798712  , 1.057301363957  , -2.771292233704 );
                        kernels[236] = compute_kernel(x,   -0.165880115876  , 1.431152033355  , -0.780610441383 );
                        kernels[237] = compute_kernel(x,   -1.856964543082  , -0.826991952492  , 1.886516620172 );
                        kernels[238] = compute_kernel(x,   1.304872709756  , 0.964912980141  , -0.828927960614 );
                        kernels[239] = compute_kernel(x,   -1.020565303242  , -1.991515301997  , 1.364687412476 );
                        kernels[240] = compute_kernel(x,   -2.531434684523  , -2.144063563648  , 1.944497643249 );
                        kernels[241] = compute_kernel(x,   -1.04031412657  , -1.662784540974  , 1.287379381707 );
                        kernels[242] = compute_kernel(x,   1.314634592512  , 1.295792308229  , -0.79027394523 );
                        kernels[243] = compute_kernel(x,   0.329922252122  , 2.544109773288  , -1.959557910622 );
                        kernels[244] = compute_kernel(x,   1.327040904603  , 1.482717642928  , -0.925562999077 );
                        kernels[245] = compute_kernel(x,   -1.244554094322  , 0.068960513824  , -0.104165172148 );
                        kernels[246] = compute_kernel(x,   1.363697196336  , 2.073573585942  , -1.63099877985 );
                        kernels[247] = compute_kernel(x,   0.020861606705  , 0.081851916217  , 0.147085927853 );
                        kernels[248] = compute_kernel(x,   -0.857539047991  , -1.514533413454  , 0.195403447084 );
                        kernels[249] = compute_kernel(x,   -1.120687899004  , -0.738900702806  , 1.026464777859 );
                        kernels[250] = compute_kernel(x,   -0.524509745201  , -0.025576437058  , -0.036520645225 );
                        kernels[251] = compute_kernel(x,   0.886940345992  , -0.008387900534  , -0.63565788369 );
                        kernels[252] = compute_kernel(x,   -0.159747290398  , 1.465529106404  , -0.838591464461 );
                        kernels[253] = compute_kernel(x,   -1.093174581034  , -0.453141283094  , 0.804204189396 );
                        kernels[254] = compute_kernel(x,   -0.430013594832  , -1.600476096075  , 0.746223166319 );
                        kernels[255] = compute_kernel(x,   0.619234074211  , 3.44221080667  , -3.467064510631 );
                        kernels[256] = compute_kernel(x,   -0.170043685466  , 0.726422035869  , -0.036520645225 );
                        kernels[257] = compute_kernel(x,   -0.511287598529  , 0.036732007842  , 0.668915135549 );
                        kernels[258] = compute_kernel(x,   1.321920839296  , 1.392477826176  , -0.828927960614 );
                        kernels[259] = compute_kernel(x,   -0.187063682779  , 0.608250847266  , 0.108431912468 );
                        kernels[260] = compute_kernel(x,   -0.52749176126  , 0.406285543109  , -0.220127218303 );
                        kernels[261] = compute_kernel(x,   -1.100910943449  , -0.766832074658  , 0.842858204781 );
                        kernels[262] = compute_kernel(x,   -1.061497693473  , -0.285553051984  , -0.152482691379 );
                        kernels[263] = compute_kernel(x,   0.489797697954  , 1.538580386631  , -2.62633967601 );
                        kernels[264] = compute_kernel(x,   -1.592802931899  , -0.500409758535  , 1.016801274013 );
                        kernels[265] = compute_kernel(x,   1.131409398301  , -2.687651031221  , 1.596611504785 );
                        kernels[266] = compute_kernel(x,   -1.261320901592  , 0.180686001231  , -0.365079775996 );
                        kernels[267] = compute_kernel(x,   -0.110487760985  , 0.588913743677  , 0.021460377852 );
                        kernels[268] = compute_kernel(x,   -0.18621971597  , 0.612547981397  , 0.098768408622 );
                        kernels[269] = compute_kernel(x,   -1.114104957894  , -0.571312471697  , 0.871848716319 );
                        kernels[270] = compute_kernel(x,   -0.28774892308  , 0.017394904252  , -1.234795122156 );
                        kernels[271] = compute_kernel(x,   0.653527258879  , 2.754669345708  , -2.587685660626 );
                        kernels[272] = compute_kernel(x,   -2.342470516012  , -2.010852405586  , 1.219734854783 );
                        kernels[273] = compute_kernel(x,   -0.255706316569  , 1.031518559171  , -0.133155683687 );
                        kernels[274] = compute_kernel(x,   0.629164750329  , 3.177937057613  , -2.732638218319 );
                        kernels[275] = compute_kernel(x,   -0.142389706361  , -0.304890155574  , 0.069777897083 );
                        kernels[276] = compute_kernel(x,   -0.592730395587  , -0.360752899277  , 0.330692500931 );
                        kernels[277] = compute_kernel(x,   2.246345817303  , -0.685186526169  , 0.060114393237 );
                        kernels[278] = compute_kernel(x,   -0.159775422625  , 1.422557765093  , -0.761283433691 );
                        kernels[279] = compute_kernel(x,   -0.306625647372  , -0.214650338823  , -1.031861541385 );
                        kernels[280] = compute_kernel(x,   0.768784992747  , -2.489982861194  , 1.065118793244 );
                        kernels[281] = compute_kernel(x,   -0.555202004818  , -0.354307198081  , 0.224393958623 );
                        kernels[282] = compute_kernel(x,   -1.977961251251  , -2.051675179831  , 1.934834139403 );
                        kernels[283] = compute_kernel(x,   1.163480137039  , 1.134649778316  , -3.119178372167 );
                        kernels[284] = compute_kernel(x,   -0.613463846859  , -1.110602805139  , 0.089104904776 );
                        kernels[285] = compute_kernel(x,   -1.172563725524  , -0.582055307024  , 1.422668435554 );
                        kernels[286] = compute_kernel(x,   -0.183884741132  , 1.166878284298  , -0.384406783689 );
                        kernels[287] = compute_kernel(x,   1.357930089808  , 1.678237245889  , -1.128496579847 );
                        kernels[288] = compute_kernel(x,   -0.167764975082  , 0.623290816725  , 0.021460377852 );
                        kernels[289] = compute_kernel(x,   -0.475193951335  , -1.250259664397  , 0.910502731704 );
                        kernels[290] = compute_kernel(x,   0.335239243018  , 2.226121847593  , -1.63099877985 );
                        kernels[291] = compute_kernel(x,   -2.280579616693  , -2.842347859938  , 1.780218077864 );
                        kernels[292] = compute_kernel(x,   -1.691350122951  , -1.301825273969  , 1.50963997017 );
                        kernels[293] = compute_kernel(x,   -0.082664988519  , 0.752204840655  , 0.35968301247 );
                        kernels[294] = compute_kernel(x,   2.257317385819  , -0.483221222011  , -0.345752768304 );
                        kernels[295] = compute_kernel(x,   -0.307047630777  , -1.402807926048  , 0.552953089394 );
                        kernels[296] = compute_kernel(x,   1.635201318757  , -0.715266465086  , 0.398337027855 );
                        kernels[297] = compute_kernel(x,   -0.54619969219  , -0.453141283094  , 0.649588127856 );
                        kernels[298] = compute_kernel(x,   -0.57973330673  , -0.380090002867  , 0.292038485546 );
                        kernels[299] = compute_kernel(x,   -0.314840257645  , -0.743197836937  , 0.098768408622 );
                        kernels[300] = compute_kernel(x,   -1.713096334393  , -0.77542634292  , 1.35502390863 );
                        kernels[301] = compute_kernel(x,   -0.105030108954  , 0.541645268236  , 0.060114393237 );
                        kernels[302] = compute_kernel(x,   1.33846258875  , 0.924090205896  , -0.79027394523 );
                        kernels[303] = compute_kernel(x,   -0.141433210645  , -0.371495734605  , 0.069777897083 );
                        kernels[304] = compute_kernel(x,   -0.872955508367  , -0.835586220754  , 0.214730454777 );
                        kernels[305] = compute_kernel(x,   -0.190383285561  , 0.279520086244  , 0.031123881699 );
                        kernels[306] = compute_kernel(x,   -1.07291937762  , -0.279107350788  , 0.485308562471 );
                        kernels[307] = compute_kernel(x,   0.197335066445  , 0.184983135362  , -0.877245479846 );
                        kernels[308] = compute_kernel(x,   0.516157594618  , 0.640479353249  , -1.254122129848 );
                        kernels[309] = compute_kernel(x,   -0.914197353094  , -0.221096040019  , 1.142426824013 );
                        kernels[310] = compute_kernel(x,   -1.25383772922  , 0.124823257527  , -0.63565788369 );
                        kernels[311] = compute_kernel(x,   0.475534658883  , 1.310832277687  , -0.519695837536 );
                        kernels[312] = compute_kernel(x,   0.549550548023  , 0.814513285555  , -0.220127218303 );
                        kernels[313] = compute_kernel(x,   -1.069965493789  , -1.187951219497  , 1.181080839398 );
                        kernels[314] = compute_kernel(x,   0.469767552356  , 1.81144840395  , -0.587340364459 );
                        kernels[315] = compute_kernel(x,   -2.221023692212  , -1.673527376302  , 1.625602016324 );
                        kernels[316] = compute_kernel(x,   -1.631766066243  , -0.582055307024  , 0.852521708627 );
                        kernels[317] = compute_kernel(x,   -0.340412451955  , -2.219263410941  , 0.572280097087 );
                        kernels[318] = compute_kernel(x,   -0.919233021721  , 0.294560055702  , 0.388673524009 );
                        kernels[319] = compute_kernel(x,   1.592468466  , 0.909050236437  , -1.302439649079 );
                        kernels[320] = compute_kernel(x,   -0.149957275415  , 1.495609045321  , -0.877245479846 );
                        kernels[321] = compute_kernel(x,   0.099772503337  , 1.216295326805  , -0.171809699072 );
                        kernels[322] = compute_kernel(x,   -1.696442056031  , -0.936568872833  , 1.847862604787 );
                        kernels[323] = compute_kernel(x,   0.47232758501  , 0.511565329319  , -1.051188549077 );
                        kernels[324] = compute_kernel(x,   -0.508502508059  , -0.573461038762  , 0.968483754781 );
                        kernels[325] = compute_kernel(x,   0.543248929184  , 0.747907706524  , -1.63099877985 );
                        kernels[326] = compute_kernel(x,   1.585154086989  , 1.355952186063  , -1.341093664464 );
                        kernels[327] = compute_kernel(x,   -1.518955836121  , -0.678740824972  , 1.258388870168 );
                        kernels[328] = compute_kernel(x,   0.502963580172  , 0.53949670117  , -1.157487091386 );
                        kernels[329] = compute_kernel(x,   1.343385728468  , 1.581551727941  , -1.051188549077 );
                        kernels[330] = compute_kernel(x,   0.377381319009  , 1.910282488964  , -1.051188549077 );
                        kernels[331] = compute_kernel(x,   -0.091779830055  , 0.487931091598  , 0.137422424007 );
                        kernels[332] = compute_kernel(x,   -0.188976674212  , 0.623290816725  , 0.011796874006 );
                        kernels[333] = compute_kernel(x,   0.000409477703  , 0.180686001231  , 0.214730454777 );
                        kernels[334] = compute_kernel(x,   -1.13554171484  , -0.562718203435  , 1.345360404784 );
                        kernels[335] = compute_kernel(x,   0.457389372492  , 0.438514049091  , -0.925562999077 );
                        kernels[336] = compute_kernel(x,   0.331469524605  , 2.569892578074  , -2.239799522162 );
                        kernels[337] = compute_kernel(x,   -0.192830789306  , -1.192248353628  , 0.040787385545 );
                        kernels[338] = compute_kernel(x,   1.143787578165  , 0.316045726357  , -1.495709726003 );
                        kernels[339] = compute_kernel(x,   1.589992830027  , 1.246375265722  , -1.872586376006 );
                        kernels[340] = compute_kernel(x,   -2.059685370579  , -1.888384082853  , 1.896180124018 );
                        kernels[341] = compute_kernel(x,   -0.549575559426  , -0.592798142352  , 0.610934112472 );
                        kernels[342] = compute_kernel(x,   0.402165810964  , 1.658900142299  , -0.886908983692 );
                        kernels[343] = compute_kernel(x,   -0.46551646526  , -1.699310181088  , 0.031123881699 );
                        kernels[344] = compute_kernel(x,   -1.718300796381  , -1.338350914083  , 1.50963997017 );
                        kernels[345] = compute_kernel(x,   0.342609886483  , 2.181001939217  , -1.42806519908 );
                        kernels[346] = compute_kernel(x,   1.155631245717  , 1.001438620254  , -2.645666683703 );
                        kernels[347] = compute_kernel(x,   -0.862349658801  , -1.613367498468  , 0.185739943238 );
                        kernels[348] = compute_kernel(x,   -2.45550580395  , -1.215882591349  , 1.780218077864 );
                        kernels[349] = compute_kernel(x,   -1.409127622057  , -0.900043232719  , 1.876853116326 );
                        kernels[350] = compute_kernel(x,   -1.213467983528  , 0.056069111431  , -0.616330875998 );
                        kernels[351] = compute_kernel(x,   -0.848339809774  , -0.831289086623  , 1.258388870168 );
                        kernels[352] = compute_kernel(x,   -0.142445970815  , -0.450992716028  , 0.050450889391 );
                        kernels[353] = compute_kernel(x,   -2.281226657913  , -3.020678926375  , 1.809208589402 );
                        kernels[354] = compute_kernel(x,   1.152114717346  , -2.346028867806  , 1.548293985554 );
                        kernels[355] = compute_kernel(x,   1.343385728468  , 1.49131191119  , -1.022198037539 );
                        kernels[356] = compute_kernel(x,   -0.793481967196  , -1.922761155901  , 0.321028997085 );
                        kernels[357] = compute_kernel(x,   0.620556288878  , 3.242394069578  , -2.819609752935 );
                        kernels[358] = compute_kernel(x,   -0.180762063939  , 0.105486153938  , -1.843595864467 );
                        kernels[359] = compute_kernel(x,   -0.85874873375  , -0.893597531523  , 1.171417335552 );
                        kernels[360] = compute_kernel(x,   -2.411535133206  , -1.499493443996  , 1.586948000939 );
                        kernels[361] = compute_kernel(x,   -0.182843848734  , 0.593210877808  , 0.011796874006 );
                        kernels[362] = compute_kernel(x,   0.087591249062  , 1.08952986994  , 0.253384470162 );
                        kernels[363] = compute_kernel(x,   0.537031707025  , 0.973507248403  , -2.085183460622 );
                        kernels[364] = compute_kernel(x,   -0.190580211149  , 0.240845879065  , 1.200407847091 );
                        kernels[365] = compute_kernel(x,   1.610557487937  , 1.267860936377  , -1.853259368313 );
                        kernels[366] = compute_kernel(x,   0.458852248294  , 0.432068347895  , -0.935226502923 );
                        kernels[367] = compute_kernel(x,   1.327941135866  , 0.760799108917  , -0.693638906767 );
                        kernels[368] = compute_kernel(x,   0.454379224207  , 1.847974044064  , -3.525045533708 );
                        kernels[369] = compute_kernel(x,   1.306335585558  , -0.691632227365  , 0.475645058625 );
                        kernels[370] = compute_kernel(x,   0.537706880472  , 0.75005627359  , -1.659989291389 );
                        kernels[371] = compute_kernel(x,   -1.984966175765  , -1.639150303254  , 1.954161147095 );
                        kernels[372] = compute_kernel(x,   -1.816369739575  , -0.438101313635  , 1.944497643249 );
                        kernels[373] = compute_kernel(x,   -0.105958472444  , 0.657667889773  , -0.07517466061 );
                        kernels[374] = compute_kernel(x,   -0.463716002734  , -1.695013046957  , 0.021460377852 );
                        kernels[375] = compute_kernel(x,   -0.413950093236  , -0.193164668168  , 0.2823749817 );
                        kernels[376] = compute_kernel(x,   -1.0855226153  , -0.657255154317  , 0.833194700934 );
                        kernels[377] = compute_kernel(x,   1.314887782555  , -0.448844148963  , -1.196141106771 );
                        kernels[378] = compute_kernel(x,   -1.534231635361  , -0.741049269872  , 1.210071350937 );
                        kernels[379] = compute_kernel(x,   1.13855498395  , 0.350422799406  , -1.118833076001 );
                        kernels[380] = compute_kernel(x,   1.505539884684  , 0.425622646698  , -1.031861541385 );
                        kernels[381] = compute_kernel(x,   -0.177948841243  , 0.599656579004  , 0.011796874006 );
                        kernels[382] = compute_kernel(x,   -1.937450844424  , -1.125642774598  , 2.031469177865 );
                        kernels[383] = compute_kernel(x,   -2.065368080425  , -2.49213142826  , 1.818872093248 );
                        kernels[384] = compute_kernel(x,   -0.308454242125  , -0.178124698709  , -1.07051555677 );
                        kernels[385] = compute_kernel(x,   -1.519968596291  , -0.758237806396  , 1.27771587786 );
                        kernels[386] = compute_kernel(x,   1.315956807179  , -0.463884118422  , 0.591607104779 );
                        kernels[387] = compute_kernel(x,   -0.18084646062  , 0.047474843169  , 0.050450889391 );
                        kernels[388] = compute_kernel(x,   -0.168608941891  , 0.713530633476  , -0.026857141379 );
                        kernels[389] = compute_kernel(x,   -0.170915784502  , 0.60180514607  , 0.021460377852 );
                        kernels[390] = compute_kernel(x,   -1.035925499164  , -1.649893138581  , 1.306706389399 );
                        kernels[391] = compute_kernel(x,   -0.177639386746  , 1.162581150167  , -0.365079775996 );
                        kernels[392] = compute_kernel(x,   0.359461090434  , 2.015562275173  , -1.360420672156 );
                        kernels[393] = compute_kernel(x,   -1.857527187622  , -0.814100550099  , 1.374350916323 );
                        kernels[394] = compute_kernel(x,   1.073794597481  , -0.706672196824  , 0.56261659324 );
                        kernels[395] = compute_kernel(x,   -0.190749004511  , 0.359017067668  , -0.017193637532 );
                        kernels[396] = compute_kernel(x,   2.168363284162  , -1.310419542231  , 0.379010020162 );
                        kernels[397] = compute_kernel(x,   -0.105480224586  , 0.571725207153  , 0.050450889391 );
                        kernels[398] = compute_kernel(x,   1.900966466877  , -1.02895725665  , 0.427327539393 );
                        kernels[399] = compute_kernel(x,   0.347026646116  , 1.994076604518  , -1.321766656771 );
                        kernels[400] = compute_kernel(x,   0.335548697515  , 2.288430292493  , -1.688979802928 );
                        kernels[401] = compute_kernel(x,   0.117552070778  , 0.365462768864  , 0.321028997085 );
                        kernels[402] = compute_kernel(x,   0.445405043806  , 1.845825476998  , -3.525045533708 );
                        kernels[403] = compute_kernel(x,   -1.681757033556  , -1.419996462572  , 1.838199100941 );
                        kernels[404] = compute_kernel(x,   -0.18371594777  , 0.034583440776  , 0.060114393237 );
                        kernels[405] = compute_kernel(x,   1.152480436297  , 0.857484626865  , -2.578022156779 );
                        kernels[406] = compute_kernel(x,   -0.083199500831  , 0.481485390401  , 0.156749431699 );
                        kernels[407] = compute_kernel(x,   -0.170128082147  , -0.001942199338  , 0.021460377852 );
                        kernels[408] = compute_kernel(x,   0.325167905765  , 0.212914507213  , -0.925562999077 );
                        kernels[409] = compute_kernel(x,   -0.192324409221  , 0.255885848523  , 1.219734854783 );
                        kernels[410] = compute_kernel(x,   -0.095577680695  , 0.49652535986  , 0.118095416315 );
                        kernels[411] = compute_kernel(x,   0.483017831256  , 1.403220661504  , -0.316762256765 );
                        kernels[412] = compute_kernel(x,   -1.005514561817  , -1.924909722966  , 1.374350916323 );
                        kernels[413] = compute_kernel(x,   -0.965144816125  , -1.175059817104  , 0.07944140093 );
                        kernels[414] = compute_kernel(x,   0.013772285511  , 0.425622646698  , 0.021460377852 );
                        kernels[415] = compute_kernel(x,   0.965907507077  , -2.825159323414  , 1.239061862475 );
                        kernels[416] = compute_kernel(x,   -2.565249621333  , -1.462967803882  , 1.915507131711 );
                        kernels[417] = compute_kernel(x,   0.474803220982  , 1.340912216604  , -0.539022845228 );
                        kernels[418] = compute_kernel(x,   -0.189511186525  , -0.001942199338  , -1.621335276004 );
                        kernels[419] = compute_kernel(x,   0.506480108543  , 0.612547981397  , -1.234795122156 );
                        kernels[420] = compute_kernel(x,   -0.150576184408  , -0.203907503495  , 0.07944140093 );
                        kernels[421] = compute_kernel(x,   0.006232848685  , 1.111015540595  , -0.510032333689 );
                        kernels[422] = compute_kernel(x,   -1.703221922729  , -0.747494971068  , 1.760891070171 );
                        kernels[423] = compute_kernel(x,   0.62637965986  , 3.721524525186  , -3.534709037555 );
                        kernels[424] = compute_kernel(x,   0.391025449086  , 1.875905415915  , -0.973880518308 );
                        kernels[425] = compute_kernel(x,   0.330456764435  , 2.239013249986  , -1.50537322985 );
                        kernels[426] = compute_kernel(x,   -0.187091815006  , 1.166878284298  , -0.374743279842 );
                        kernels[427] = compute_kernel(x,   -0.055854976223  , 0.47718825627  , 0.156749431699 );
                        kernels[428] = compute_kernel(x,   -0.184081666721  , 1.145392613643  , -0.35541627215 );
                        kernels[429] = compute_kernel(x,   -0.828394060857  , -0.569163904631  , 1.258388870168 );
                        kernels[430] = compute_kernel(x,   -0.336305146818  , -0.58420387409  , 0.098768408622 );
                        kernels[431] = compute_kernel(x,   1.154815411135  , 0.784433346638  , -2.384752079855 );
                        kernels[432] = compute_kernel(x,   1.164042781579  , 1.029369992106  , -2.906581287551 );
                        kernels[433] = compute_kernel(x,   -1.522584893399  , -0.693780794431  , 1.306706389399 );
                        kernels[434] = compute_kernel(x,   -0.099178605746  , 0.492228225729  , 0.127758920161 );
                        kernels[435] = compute_kernel(x,   -2.214693941145  , -1.626258900861  , 1.625602016324 );
                        kernels[436] = compute_kernel(x,   0.475478394429  , 1.549323221958  , -0.471378318305 );
                        kernels[437] = compute_kernel(x,   -0.193112111576  , 0.288114354506  , 0.011796874006 );
                        kernels[438] = compute_kernel(x,   0.386468028318  , 1.899539653636  , -1.031861541385 );
                        kernels[439] = compute_kernel(x,   0.974628497436  , -2.313800361823  , 1.470985954785 );
                        kernels[440] = compute_kernel(x,   -0.154205241686  , 1.439746301618  , -0.780610441383 );
                        kernels[441] = compute_kernel(x,   1.342316703844  , -0.468181252553  , -0.973880518308 );
                        kernels[442] = compute_kernel(x,   -0.24375012011  , 0.238697311999  , -2.06585645293 );
                        kernels[443] = compute_kernel(x,   0.337996201261  , 2.337847334999  , -1.746960826005 );
                        kernels[444] = compute_kernel(x,   1.373065227915  , 1.860865446457  , -1.437728702926 );
                        kernels[445] = compute_kernel(x,   1.817019901619  , -0.73245500161  , 0.243720966315 );
                        kernels[446] = compute_kernel(x,   -0.144218301114  , 1.297940875294  , -0.519695837536 );
                        kernels[447] = compute_kernel(x,   -1.063804536084  , -0.313484423836  , 0.697905647087 );
                        kernels[448] = compute_kernel(x,   -0.633212670187  , -0.747494971068  , -0.548686349074 );
                        kernels[449] = compute_kernel(x,   -0.1776956512  , 0.610399414332  , 0.108431912468 );
                        kernels[450] = compute_kernel(x,   0.621118933417  , 3.377753794705  , -3.119178372167 );
                        kernels[451] = compute_kernel(x,   -1.260026819152  , 0.159200330575  , -0.316762256765 );
                        kernels[452] = compute_kernel(x,   -0.40418821048  , 0.21936020841  , 0.427327539393 );
                        kernels[453] = compute_kernel(x,   0.594927830115  , 0.371908470061  , -0.046184149071 );
                        kernels[454] = compute_kernel(x,   1.085497603898  , 0.346125665275  , -0.55834985292 );
                        kernels[455] = compute_kernel(x,   -0.28867728657  , -1.3061224081  , 0.63992462401 );
                        kernels[456] = compute_kernel(x,   -0.710210575385  , -0.98598591534  , 0.011796874006 );
                        kernels[457] = compute_kernel(x,   -0.105030108954  , 0.429919780829  , 0.330692500931 );
                        kernels[458] = compute_kernel(x,   -0.262936298898  , 0.36761133593  , -1.486046222157 );
                        kernels[459] = compute_kernel(x,   0.41665390785  , 1.688980081216  , -0.91589949523 );
                        kernels[460] = compute_kernel(x,   -0.101344787222  , 0.567428073022  , 0.263047974008 );
                        kernels[461] = compute_kernel(x,   0.503160505761  , 0.580319475415  , -1.186477602924 );
                        kernels[462] = compute_kernel(x,   -0.14731284608  , 1.517094715976  , -0.935226502923 );
                        kernels[463] = compute_kernel(x,   1.166293359736  , 1.126055510054  , -2.993552822167 );
                        kernels[464] = compute_kernel(x,   -0.441688469022  , -1.85615557687  , 0.765550174011 );
                        kernels[465] = compute_kernel(x,   -0.384973899464  , 0.210765940148  , -1.920903895237 );
                        kernels[466] = compute_kernel(x,   -0.698141850018  , -1.933503991228  , 1.142426824013 );
                        kernels[467] = compute_kernel(x,   -1.734504959112  , -0.979540214143  , 1.393677924015 );
                        kernels[468] = compute_kernel(x,   1.920771554659  , -0.650809453121  , 0.398337027855 );
                        kernels[469] = compute_kernel(x,   -1.108056529097  , -0.597095276483  , -0.220127218303 );
                        kernels[470] = compute_kernel(x,   -0.530980157403  , -1.168614115908  , -0.268444737534 );
                        kernels[471] = compute_kernel(x,   1.315591088229  , 1.136798345381  , -0.79027394523 );
                        kernels[472] = compute_kernel(x,   -0.350680714796  , -0.934420305768  , -0.539022845228 );
                        kernels[473] = compute_kernel(x,   -0.69459718942  , -1.731538687071  , 0.987810762474 );
                        kernels[474] = compute_kernel(x,   -0.513538176686  , -0.418764210046  , 0.968483754781 );
                        kernels[475] = compute_kernel(x,   -0.153726993828  , 1.545026087827  , -0.973880518308 );
                        kernels[476] = compute_kernel(x,   -0.150210465457  , 1.508500447714  , -0.906235991384 );
                        kernels[477] = compute_kernel(x,   -0.166836611592  , -0.178124698709  , 0.07944140093 );
                        kernels[478] = compute_kernel(x,   1.341107018084  , -0.401575673522  , -0.935226502923 );
                        kernels[479] = compute_kernel(x,   1.526076410367  , -0.704523629758  , 0.417664035547 );
                        kernels[480] = compute_kernel(x,   -2.323706320627  , -1.72724155294  , 1.306706389399 );
                        kernels[481] = compute_kernel(x,   -0.148775721882  , 1.545026087827  , -1.022198037539 );
                        kernels[482] = compute_kernel(x,   1.454704950561  , -0.685186526169  , 0.465981554778 );
                        kernels[483] = compute_kernel(x,   0.476547419054  , 1.38603212498  , -0.55834985292 );
                        kernels[484] = compute_kernel(x,   -1.1152583792  , -0.949460275226  , 1.07478229709 );
                        kernels[485] = compute_kernel(x,   -0.189117335347  , 1.278603771705  , -0.568013356767 );
                        kernels[486] = compute_kernel(x,   -0.085815797939  , 0.483633957467  , 0.137422424007 );
                        kernels[487] = compute_kernel(x,   1.590583606793  , 0.969210114272  , -1.302439649079 );
                        kernels[488] = compute_kernel(x,   2.218663705972  , -0.612135245942  , -0.07517466061 );
                        kernels[489] = compute_kernel(x,   -0.354422300982  , -0.741049269872  , -0.964217014462 );
                        kernels[490] = compute_kernel(x,   -1.062369792509  , -1.4307392979  , 1.287379381707 );
                        kernels[491] = compute_kernel(x,   0.429257145529  , 1.744842824919  , -0.828927960614 );
                        kernels[492] = compute_kernel(x,   -2.055943784392  , -2.232154813334  , 1.818872093248 );
                        kernels[493] = compute_kernel(x,   -1.089911242706  , -1.15787128058  , 0.852521708627 );
                        kernels[494] = compute_kernel(x,   -1.166768486769  , -0.322078692098  , 1.132763320167 );
                        kernels[495] = compute_kernel(x,   -0.842938422197  , -0.429507045373  , 1.287379381707 );
                        kernels[496] = compute_kernel(x,   0.484902690462  , 0.543793835301  , -1.109169572155 );
                        kernels[497] = compute_kernel(x,   -2.458459687781  , -1.845412741542  , 2.089450200942 );
                        kernels[498] = compute_kernel(x,   0.272476244664  , 0.380502738323  , 0.388673524009 );
                        kernels[499] = compute_kernel(x,   -0.382441999038  , 0.146308928182  , -1.727633818312 );
                        kernels[500] = compute_kernel(x,   -0.473224695448  , -1.329756645821  , 0.900839227858 );
                        kernels[501] = compute_kernel(x,   -0.181099650663  , 0.618993682594  , 0.021460377852 );
                        kernels[502] = compute_kernel(x,   -0.108715430687  , -1.022511555453  , 0.089104904776 );
                        kernels[503] = compute_kernel(x,   -0.185741468112  , 0.331085695816  , -0.007530133686 );
                        kernels[504] = compute_kernel(x,   -0.008649099379  , 0.251588714392  , 0.494972066317 );
                        kernels[505] = compute_kernel(x,   -0.105001976727  , 0.642627920314  , -0.046184149071 );
                        kernels[506] = compute_kernel(x,   -0.07042746979  , 1.093827004071  , 0.350019508624 );
                        kernels[507] = compute_kernel(x,   0.541842317835  , 0.818810419686  , -1.775951337544 );
                        kernels[508] = compute_kernel(x,   -1.106143537664  , -0.859220458475  , -0.181473202918 );
                        kernels[509] = compute_kernel(x,   1.335790027188  , -0.444547014832  , 0.572280097087 );
                        kernels[510] = compute_kernel(x,   -2.355383208188  , -2.526508501308  , 2.118440712481 );
                        kernels[511] = compute_kernel(x,   0.243922034296  , 0.361165634733  , 0.427327539393 );
                        kernels[512] = compute_kernel(x,   -1.519349687298  , -0.637918050728  , 1.297042885553 );
                        kernels[513] = compute_kernel(x,   0.656396746029  , 2.827720625935  , -2.732638218319 );
                        kernels[514] = compute_kernel(x,   0.334170218394  , 2.363630139785  , -1.775951337544 );
                        kernels[515] = compute_kernel(x,   -0.361399093269  , -2.025892375045  , 0.504635570163 );
                        kernels[516] = compute_kernel(x,   -1.711520929683  , -0.878557562064  , 1.751227566325 );
                        kernels[517] = compute_kernel(x,   -0.085787665712  , -0.18242183284  , 0.176076439392 );
                        kernels[518] = compute_kernel(x,   -0.179467981499  , 0.144160361117  , 0.060114393237 );
                        kernels[519] = compute_kernel(x,   -2.455955919581  , -2.494279995325  , 1.925170635557 );
                        kernels[520] = compute_kernel(x,   -0.625701365588  , -1.196545487759  , 0.195403447084 );
                        kernels[521] = compute_kernel(x,   1.083697141372  , 0.636182219118  , -0.548686349074 );
                        kernels[522] = compute_kernel(x,   -0.704555997765  , -1.974326765473  , 0.987810762474 );
                        kernels[523] = compute_kernel(x,   1.154562221092  , 0.438514049091  , -1.766287833697 );
                        kernels[524] = compute_kernel(x,   -1.015726560204  , -2.111835057665  , 1.384014420169 );
                        kernels[525] = compute_kernel(x,   -2.056450164478  , -1.858304143935  , 1.905843627864 );
                        kernels[526] = compute_kernel(x,   0.620415627743  , 0.956318711878  , -2.046529445238 );
                        kernels[527] = compute_kernel(x,   0.501838291094  , 1.302238009425  , -0.471378318305 );
                        kernels[528] = compute_kernel(x,   2.28899427338  , -0.397278539391  , -0.27810824138 );
                        kernels[529] = compute_kernel(x,   -2.213006007527  , -1.772361461315  , 1.71257355094 );
                        kernels[530] = compute_kernel(x,   0.007948914529  , 0.227954476672  , 0.234057462469 );
                        kernels[531] = compute_kernel(x,   -0.194349929562  , 0.316045726357  , 0.011796874006 );
                        kernels[532] = compute_kernel(x,   1.65286835729  , -0.71311789802  , 0.379010020162 );
                        kernels[533] = compute_kernel(x,   -0.195784673137  , 0.335382829947  , -0.017193637532 );
                        kernels[534] = compute_kernel(x,   -1.531418412665  , -0.758237806396  , 1.200407847091 );
                        kernels[535] = compute_kernel(x,   0.003110171492  , 0.236548744934  , 0.214730454777 );
                        kernels[536] = compute_kernel(x,   -0.166133305918  , 1.463380539338  , -0.819264456768 );
                        kernels[537] = compute_kernel(x,   -0.195222028598  , 1.19480965615  , -0.413397295227 );
                        kernels[538] = compute_kernel(x,   -0.838409133656  , -0.051359241844  , 1.239061862475 );
                        kernels[539] = compute_kernel(x,   2.139133900347  , -1.095562835681  , 0.533626081702 );
                        kernels[540] = compute_kernel(x,   0.193002703493  , 0.195725970689  , -0.848254968307 );
                        kernels[541] = compute_kernel(x,   0.08204920035  , 1.130352644185  , 0.118095416315 );
                        kernels[542] = compute_kernel(x,   -1.131856393108  , -0.298444454378  , -0.394070287535 );
                        kernels[543] = compute_kernel(x,   -0.152348514706  , 1.562214624351  , -1.031861541385 );
                        kernels[544] = compute_kernel(x,   -0.705653154617  , -1.649893138581  , 0.99747426632 );
                        kernels[545] = compute_kernel(x,   0.551885522861  , 0.786581913703  , -0.210463714457 );
                        kernels[546] = compute_kernel(x,   -2.277681997316  , -2.266531886382  , 1.441995443246 );
                        kernels[547] = compute_kernel(x,   -1.075507542501  , -0.386535704063  , -0.113828675995 );
                        kernels[548] = compute_kernel(x,   -0.186782360509  , 0.614696548463  , 0.089104904776 );
                        kernels[549] = compute_kernel(x,   -1.180440749073  , -0.326375826229  , 1.15209032786 );
                        kernels[550] = compute_kernel(x,   2.010457094218  , -1.334053779952  , 0.456318050932 );
                        kernels[551] = compute_kernel(x,   -0.517532952915  , -0.667997989645  , 0.900839227858 );
                        kernels[552] = compute_kernel(x,   -0.173841536106  , -0.014833601731  , 0.040787385545 );
                        kernels[553] = compute_kernel(x,   1.584394516861  , 1.36669502139  , -1.486046222157 );
                        kernels[554] = compute_kernel(x,   -0.701292659438  , -1.68856734576  , 1.007137770166 );
                        kernels[555] = compute_kernel(x,   0.729821858403  , -0.609986678876  , 0.572280097087 );
                        kernels[556] = compute_kernel(x,   -1.458077696972  , -0.934420305768  , 1.799545085556 );
                        kernels[557] = compute_kernel(x,   -0.17139403236  , 1.405369228569  , -0.71296591446 );
                        kernels[558] = compute_kernel(x,   -2.36638290893  , -2.670462494697  , 2.108777208635 );
                        kernels[559] = compute_kernel(x,   1.350109330713  , -0.487518356142  , -0.944890006769 );
                        kernels[560] = compute_kernel(x,   -0.111078537751  , -0.461735551356  , 0.069777897083 );
                        kernels[561] = compute_kernel(x,   1.183510282637  , 0.756501974786  , -0.809600952922 );
                        kernels[562] = compute_kernel(x,   -0.185882129246  , 0.603953713135  , 0.098768408622 );
                        kernels[563] = compute_kernel(x,   -0.101204126087  , 0.719976334673  , -0.162146195226 );
                        kernels[564] = compute_kernel(x,   -0.347332979788  , -0.932271738702  , -0.55834985292 );
                        kernels[565] = compute_kernel(x,   -0.149225837514  , -0.180273265775  , 0.040787385545 );
                        kernels[566] = compute_kernel(x,   -0.31498091878  , -0.786169178248  , 0.098768408622 );
                        kernels[567] = compute_kernel(x,   -1.102992728244  , -0.96664881175  , 0.842858204781 );
                        kernels[568] = compute_kernel(x,   0.480457798602  , 0.735016304131  , 0.060114393237 );
                        kernels[569] = compute_kernel(x,   -0.087644392691  , 0.612547981397  , 0.330692500931 );
                        kernels[570] = compute_kernel(x,   -1.944624562299  , -1.716498717612  , 2.050796185558 );
                        kernels[571] = compute_kernel(x,   -1.262980702983  , 0.025989172514  , -0.046184149071 );
                        kernels[572] = compute_kernel(x,   -1.725840233207  , -1.413550761376  , 1.673919535555 );
                        kernels[573] = compute_kernel(x,   -0.899202876123  , -1.697161614022  , 1.35502390863 );
                        kernels[574] = compute_kernel(x,   -2.251378365105  , -1.9850696008  , 1.644929024017 );
                        kernels[575] = compute_kernel(x,   -0.851631280329  , -2.036635210373  , 1.055455289397 );
                        kernels[576] = compute_kernel(x,   1.882286668174  , -0.958054543488  , 0.446654547086 );
                        kernels[577] = compute_kernel(x,   0.912850127025  , -0.066399211303  , -0.481041822151 );
                        kernels[578] = compute_kernel(x,   -0.10525516677  , 0.492228225729  , 0.127758920161 );
                        kernels[579] = compute_kernel(x,   -2.351697886456  , -2.064566582224  , 1.210071350937 );
                        kernels[580] = compute_kernel(x,   0.532474286257  , 0.911198803503  , -1.949894406775 );
                        kernels[581] = compute_kernel(x,   0.012140616347  , 0.21936020841  , 0.156749431699 );
                        kernels[582] = compute_kernel(x,   -1.16491175979  , -0.319930125033  , 1.142426824013 );
                        kernels[583] = compute_kernel(x,   -0.157524844468  , 0.627587950856  , 0.021460377852 );
                        kernels[584] = compute_kernel(x,   0.004291725024  , 0.26233154972  , 0.253384470162 );
                        kernels[585] = compute_kernel(x,   2.222236498796  , -0.958054543488  , 0.234057462469 );
                        kernels[586] = compute_kernel(x,   -0.348542665547  , -0.900043232719  , -0.674311899075 );
                        kernels[587] = compute_kernel(x,   0.538522715054  , 0.943427309485  , -2.046529445238 );
                        kernels[588] = compute_kernel(x,   0.570931040515  , 1.050855662761  , -2.268790033701 );
                        kernels[589] = compute_kernel(x,   -1.448034491947  , -0.951608842292  , 1.751227566325 );
                        kernels[590] = compute_kernel(x,   -0.436033891402  , -1.759470058922  , 0.775213677857 );
                        kernels[591] = compute_kernel(x,   1.359505494518  , 1.805002702754  , -1.370084176003 );
                        kernels[592] = compute_kernel(x,   -0.503663765022  , -0.111519119678  , 0.978147258628 );
                        kernels[593] = compute_kernel(x,   1.054636550919  , -0.291998753181  , 0.350019508624 );
                        kernels[594] = compute_kernel(x,   -1.112923404362  , -0.826991952492  , 1.103772808628 );
                        kernels[595] = compute_kernel(x,   -1.463788539046  , -0.882854696195  , 1.780218077864 );
                        kernels[596] = compute_kernel(x,   1.308361105899  , 1.098124138202  , -0.799937449076 );
                        kernels[597] = compute_kernel(x,   -0.378447222809  , -0.829140519558  , -0.867581975999 );
                        kernels[598] = compute_kernel(x,   -0.163263818768  , 1.424706332159  , -0.761283433691 );
                        kernels[599] = compute_kernel(x,   -0.210666621201  , 0.502971061057  , 1.055455289397 );
                        kernels[600] = compute_kernel(x,   1.55235191035  , -0.64651231899  , 0.35968301247 );
                        kernels[601] = compute_kernel(x,   1.35745184195  , 0.099040452741  , -0.770946937537 );
                        kernels[602] = compute_kernel(x,   -1.683782553897  , -1.419996462572  , 1.828535597095 );
                        kernels[603] = compute_kernel(x,   -0.181071518436  , 0.614696548463  , 0.118095416315 );
                        kernels[604] = compute_kernel(x,   0.627983196796  , 3.308999648608  , -3.283457937553 );
                        kernels[605] = compute_kernel(x,   1.351459677607  , 1.667494410561  , -1.118833076001 );
                        kernels[606] = compute_kernel(x,   0.502457200087  , 0.857484626865  , 0.021460377852 );
                        kernels[607] = compute_kernel(x,   0.014447458958  , 0.380502738323  , 0.060114393237 );
                        kernels[608] = compute_kernel(x,   -1.928476664023  , -0.996728750667  , 1.99281516248 );
                        kernels[609] = compute_kernel(x,   1.601442646401  , -0.760386373461  , 0.388673524009 );
                        kernels[610] = compute_kernel(x,   1.861806406945  , -0.824843385427  , 0.446654547086 );
                        kernels[611] = compute_kernel(x,   -0.199891978274  , 0.251588714392  , 1.210071350937 );
                        kernels[612] = compute_kernel(x,   -0.154064580551  , 1.433300600421  , -0.770946937537 );
                        kernels[613] = compute_kernel(x,   -0.188892277531  , 0.324639994619  , -0.007530133686 );
                        kernels[614] = compute_kernel(x,   1.364006650832  , 1.968293799732  , -1.534363741388 );
                        kernels[615] = compute_kernel(x,   0.551998051769  , 1.177621119626  , -0.142819187533 );
                        kernels[616] = compute_kernel(x,   -1.08330016937  , -0.418764210046  , 0.79454068555 );
                        kernels[617] = compute_kernel(x,   -0.286567369547  , 0.502971061057  , -1.659989291389 );
                        kernels[618] = compute_kernel(x,   -0.35295942518  , -0.932271738702  , -0.519695837536 );
                        kernels[619] = compute_kernel(x,   1.587967309686  , 0.906901669372  , -1.331430160618 );
                        kernels[620] = compute_kernel(x,   -0.165598793606  , 0.70708493228  , -0.026857141379 );
                        kernels[621] = compute_kernel(x,   1.867179662295  , -0.908637500981  , 0.456318050932 );
                        kernels[622] = compute_kernel(x,   -0.609665996219  , -0.719563599217  , -0.577676860613 );
                        kernels[623] = compute_kernel(x,   0.794441583737  , -2.55443987316  , 1.016801274013 );
                        kernels[624] = compute_kernel(x,   0.014925706816  , 0.395542707781  , 0.108431912468 );
                        kernels[625] = compute_kernel(x,   -0.193083979349  , -1.23951682907  , -0.065511156764 );
                        kernels[626] = compute_kernel(x,   1.476732484274  , 0.341828531144  , -0.954553510615 );
                        kernels[627] = compute_kernel(x,   0.376903071151  , 1.93606529375  , -1.099506068309 );
                        kernels[628] = compute_kernel(x,   2.199646320545  , -1.020362988388  , 0.504635570163 );
                        kernels[629] = compute_kernel(x,   -0.166780347138  , 1.435449167487  , -0.780610441383 );
                        kernels[630] = compute_kernel(x,   0.476434890146  , 1.624523069251  , -3.225476914476 );
                        kernels[631] = compute_kernel(x,   -0.719269152467  , -0.844180489016  , -0.239454225995 );
                        kernels[632] = compute_kernel(x,   -0.729790605351  , -1.018214421322  , 1.297042885553 );
                        kernels[633] = compute_kernel(x,   0.136935175155  , 1.121758375923  , -0.017193637532 );
                        kernels[634] = compute_kernel(x,   0.432351690495  , 0.670559292166  , 0.069777897083 );
                        kernels[635] = compute_kernel(x,   0.397523993515  , 1.850122611129  , -0.848254968307 );
                        kernels[636] = compute_kernel(x,   -0.156371423162  , 1.293643741163  , -0.510032333689 );
                        kernels[637] = compute_kernel(x,   -0.057486645387  , 0.472891122139  , 0.166412935546 );
                        kernels[638] = compute_kernel(x,   1.337365431898  , -0.362901466343  , -1.012534533693 );
                        kernels[639] = compute_kernel(x,   -0.533708983418  , -0.081439180761  , 0.050450889391 );
                        kernels[640] = compute_kernel(x,   0.010705872772  , 0.412731244305  , -0.036520645225 );
                        kernels[641] = compute_kernel(x,   0.478404146034  , 1.512797581845  , -0.63565788369 );
                        kernels[642] = compute_kernel(x,   -0.059849752452  , 0.470742555074  , 0.166412935546 );
                        kernels[643] = compute_kernel(x,   -0.530304983956  , 0.567428073022  , -0.336089264458 );
                        kernels[644] = compute_kernel(x,   -0.586541305655  , -0.822694818361  , -0.326425760611 );
                        kernels[645] = compute_kernel(x,   -0.144752813426  , 1.579403160875  , -1.051188549077 );
                        kernels[646] = compute_kernel(x,   -2.443605871944  , -2.315948928888  , 2.099113704789 );
                        kernels[647] = compute_kernel(x,   1.209785782621  , -0.264067381329  , -0.036520645225 );
                        kernels[648] = compute_kernel(x,   -0.167314859451  , -0.025576437058  , 0.031123881699 );
                        kernels[649] = compute_kernel(x,   -0.540432585663  , -0.133004790333  , -0.046184149071 );
                        kernels[650] = compute_kernel(x,   -2.575911735352  , -1.722944418809  , 1.886516620172 );
                        kernels[651] = compute_kernel(x,   0.596615763733  , 0.380502738323  , -0.07517466061 );
                        kernels[652] = compute_kernel(x,   1.862200258122  , -0.893597531523  , 0.43699104324 );
                        kernels[653] = compute_kernel(x,   -0.103932952103  , 0.674856426297  , -0.094501668302 );
                        kernels[654] = compute_kernel(x,   0.515820007895  , 0.631885084987  , -1.244458626002 );
                        kernels[655] = compute_kernel(x,   -0.290955996954  , -1.329756645821  , 0.610934112472 );
                        kernels[656] = compute_kernel(x,   -0.370035686947  , 0.182834568296  , -1.457055710618 );
                        kernels[657] = compute_kernel(x,   0.538382053919  , 0.694193529887  , -1.360420672156 );
                        kernels[658] = compute_kernel(x,   1.318094856429  , -0.470329819618  , -1.302439649079 );
                        kernels[659] = compute_kernel(x,   1.133800637593  , -2.348177434871  , 1.596611504785 );
                        kernels[660] = compute_kernel(x,   -0.152939291473  , 1.527837551303  , -0.944890006769 );
                        kernels[661] = compute_kernel(x,   1.209673253713  , -0.261918814264  , -0.026857141379 );
                        kernels[662] = compute_kernel(x,   -0.829519349936  , -0.717415032151  , 1.15209032786 );
                        kernels[663] = compute_kernel(x,   0.351049554572  , 1.95969953147  , -1.302439649079 );
                        kernels[664] = compute_kernel(x,   -0.10488944782  , -0.88070612913  , 0.069777897083 );
                        kernels[665] = compute_kernel(x,   -1.54545639392  , -0.601392410614  , 1.171417335552 );
                        kernels[666] = compute_kernel(x,   -0.296610574573  , -0.5648667705  , -0.838591464461 );
                        kernels[667] = compute_kernel(x,   1.752175118469  , -0.77542634292  , 0.272711477854 );
                        kernels[668] = compute_kernel(x,   0.89121644449  , 0.013097770121  , -0.654984891383 );
                        kernels[669] = compute_kernel(x,   -0.831319812461  , -0.676592257907  , 1.132763320167 );
                        kernels[670] = compute_kernel(x,   1.307545271317  , 1.370992155521  , -0.819264456768 );
                        kernels[671] = compute_kernel(x,   -0.14888825079  , 1.566511758482  , -1.041525045231 );
                        kernels[672] = compute_kernel(x,   0.010508947183  , 0.180686001231  , 0.166412935546 );
                        kernels[673] = compute_kernel(x,   0.53660972362  , 0.713530633476  , -1.437728702926 );
                        kernels[674] = compute_kernel(x,   -0.285132625972  , -1.202991188956  , 0.659251631703 );
                        kernels[675] = compute_kernel(x,   -1.703700170587  , -1.013917287191  , 1.722237054786 );
                        kernels[676] = compute_kernel(x,   0.51030609141  , 0.636182219118  , -1.263785633694 );
                        kernels[677] = compute_kernel(x,   -0.162644909775  , 1.476271941731  , -0.848254968307 );
                        kernels[678] = compute_kernel(x,   -0.825693367069  , -1.172911250039  , 0.35968301247 );
                        kernels[679] = compute_kernel(x,   -0.0827493852  , -0.191016101102  , -1.379747679849 );
                        kernels[680] = compute_kernel(x,   -0.800683817298  , -1.789549997839  , 0.340356004778 );
                        kernels[681] = compute_kernel(x,   -0.067839304909  , 0.475039689205  , 0.156749431699 );
                        kernels[682] = compute_kernel(x,   -1.479430057237  , -0.846329056082  , 1.615938512478 );
                        kernels[683] = compute_kernel(x,   -0.114876388392  , -0.463884118422  , 0.069777897083 );
                        kernels[684] = compute_kernel(x,   1.206860031016  , -0.259770247198  , -0.026857141379 );
                        kernels[685] = compute_kernel(x,   0.64860411916  , 3.130668582171  , -3.06119734909 );
                        kernels[686] = compute_kernel(x,   -0.144471491157  , 1.49131191119  , -0.925562999077 );
                        kernels[687] = compute_kernel(x,   0.624663594015  , 0.934833041223  , -2.056192949084 );
                        kernels[688] = compute_kernel(x,   -2.311440669671  , -3.059353133554  , 1.983151658634 );
                        kernels[689] = compute_kernel(x,   -1.02512272401  , -1.720795851743  , 1.287379381707 );
                        kernels[690] = compute_kernel(x,   1.310527287375  , -0.431655612439  , -1.27344913754 );
                        kernels[691] = compute_kernel(x,   -1.53285315624  , -0.745346404003  , 1.200407847091 );
                        kernels[692] = compute_kernel(x,   -0.734657480616  , -0.915083202178  , -0.104165172148 );
                        kernels[693] = compute_kernel(x,   -0.303615499087  , -1.346945182345  , 0.581943600933 );
                        kernels[694] = compute_kernel(x,   -0.313349249616  , -0.831289086623  , -0.683975402921 );
                        kernels[695] = compute_kernel(x,   1.705025506079  , -0.706672196824  , 0.2823749817 );
                        kernels[696] = compute_kernel(x,   -1.273220833598  , 0.165646031772  , -0.374743279842 );
                        kernels[697] = compute_kernel(x,   0.531152071589  , 0.73071917  , -1.466719214465 );
                        kernels[698] = compute_kernel(x,   1.142493495725  , 0.629736517921  , -2.317107552932 );
                        kernels[699] = compute_kernel(x,   -0.284907568157  , 0.511565329319  , -1.833932360621 );
                        kernels[700] = compute_kernel(x,   2.263393946843  , -0.599243843548  , -0.297435249073 );
                        kernels[701] = compute_kernel(x,   -2.284883847418  , -1.869046979263  , 1.306706389399 );
                        kernels[702] = compute_kernel(x,   -0.31562796  , -1.79384713197  , 0.610934112472 );
                        kernels[703] = compute_kernel(x,   -1.508575044371  , -0.784020611182  , 1.374350916323 );
                        kernels[704] = compute_kernel(x,   -0.206081068206  , 0.468593988008  , 1.200407847091 );
                        kernels[705] = compute_kernel(x,   -1.16463043752  , -0.326375826229  , 1.161753831706 );
                        kernels[706] = compute_kernel(x,   -0.537563098512  , -0.88070612913  , 0.630261120164 );
                        kernels[707] = compute_kernel(x,   -0.005104438781  , 0.150606062313  , 0.494972066317 );
                        kernels[708] = compute_kernel(x,   -0.262767505537  , 0.223657342541  , -1.370084176003 );
                        kernels[709] = compute_kernel(x,   -0.082299269568  , 0.732867737066  , 0.340356004778 );
                        kernels[710] = compute_kernel(x,   -0.883983341336  , -0.098627717285  , 1.161753831706 );
                        kernels[711] = compute_kernel(x,   -0.143318069851  , 1.465529106404  , -0.896572487538 );
                        kernels[712] = compute_kernel(x,   -1.160607529064  , 0.09474331861  , -0.606667372152 );
                        kernels[713] = compute_kernel(x,   -0.198935482557  , -1.245962530266  , 0.011796874006 );
                        kernels[714] = compute_kernel(x,   0.073553267807  , 1.244226698656  , -0.239454225995 );
                        kernels[715] = compute_kernel(x,   1.91010944064  , -1.041848659043  , 0.446654547086 );
                        kernels[716] = compute_kernel(x,   0.18385972973  , 1.504203313583  , -0.461714814458 );
                        kernels[717] = compute_kernel(x,   -0.828506589765  , -0.710969330955  , 1.268052374014 );
                        kernels[718] = compute_kernel(x,   -1.017780212773  , -2.221411978006  , 1.297042885553 );
                        kernels[719] = compute_kernel(x,   1.016264193341  , 0.146308928182  , -0.770946937537 );
                        kernels[720] = compute_kernel(x,   -0.225745494853  , -1.428590730834  , -0.133155683687 );
                        kernels[721] = compute_kernel(x,   -0.072452990131  , 0.472891122139  , 0.156749431699 );
                        kernels[722] = compute_kernel(x,   0.399999629487  , 1.757734227313  , -1.012534533693 );
                        kernels[723] = compute_kernel(x,   -2.225102865122  , -1.288933871576  , 1.644929024017 );
                        kernels[724] = compute_kernel(x,   0.618699561899  , 3.437913672539  , -3.225476914476 );
                        kernels[725] = compute_kernel(x,   1.579612038278  , 1.134649778316  , -1.611671772158 );
                        kernels[726] = compute_kernel(x,   -0.176035849809  , 0.593210877808  , 0.011796874006 );
                        kernels[727] = compute_kernel(x,   -2.444646764342  , -2.034486643307  , 2.099113704789 );
                        kernels[728] = compute_kernel(x,   -1.066083246468  , -0.534786831583  , 0.823531197088 );
                        kernels[729] = compute_kernel(x,   0.060978162355  , 0.967061547206  , 0.147085927853 );
                        kernels[730] = compute_kernel(x,   -0.475897257009  , -1.250259664397  , 0.92016623555 );
                        kernels[731] = compute_kernel(x,   -2.279707517657  , -2.058120881028  , 1.654592527863 );
                        kernels[732] = compute_kernel(x,   1.006586707266  , 0.081851916217  , -0.751619929845 );
                        kernels[733] = compute_kernel(x,   -0.343647658056  , 0.417028378436  , -2.239799522162 );
                        kernels[734] = compute_kernel(x,   1.363781593017  , 1.686831514151  , -1.138160083693 );
                        kernels[735] = compute_kernel(x,   1.246723396623  , -0.311335856771  , 0.272711477854 );
                        kernels[736] = compute_kernel(x,   -0.304346936988  , -0.433804179504  , -1.234795122156 );
                        kernels[737] = compute_kernel(x,   -0.174657370688  , 0.202171671886  , 0.040787385545 );
                        kernels[738] = compute_kernel(x,   -1.828382200488  , -0.304890155574  , 1.451658947092 );
                        kernels[739] = compute_kernel(x,   1.554067976195  , 0.638330786183  , -0.993207526 );
                        kernels[740] = compute_kernel(x,   1.077395522532  , 0.464296853877  , -1.022198037539 );
                        kernels[741] = compute_kernel(x,   -1.517211638049  , -0.622878081269  , 1.335696900938 );
                        kernels[742] = compute_kernel(x,   1.352922553409  , 0.66411359097  , -0.703302410614 );
                        kernels[743] = compute_kernel(x,   1.608953951  , -0.760386373461  , 0.398337027855 );
                        kernels[744] = compute_kernel(x,   -0.363509010292  , 0.103337586872  , -1.621335276004 );
                        kernels[745] = compute_kernel(x,   1.587657855189  , 1.199106790281  , -1.331430160618 );
                        kernels[746] = compute_kernel(x,   1.770995578308  , -0.762534940527  , 0.253384470162 );
                        kernels[747] = compute_kernel(x,   1.364625559826  , 1.839379775802  , -1.379747679849 );
                        kernels[748] = compute_kernel(x,   -0.60252041057  , -0.721712166282  , -0.529359341382 );
                        kernels[749] = compute_kernel(x,   -0.530304983956  , 0.169943165903  , -0.084838164456 );
                        kernels[750] = compute_kernel(x,   -2.340501260124  , -2.135469295386  , 1.219734854783 );
                        kernels[751] = compute_kernel(x,   -0.097997052214  , -0.339267228622  , -0.886908983692 );
                        kernels[752] = compute_kernel(x,   -0.98964798581  , -0.066399211303  , -0.171809699072 );
                        kernels[753] = compute_kernel(x,   -0.158931455816  , -0.188867534037  , 0.060114393237 );
                        kernels[754] = compute_kernel(x,   -0.096506044185  , 0.485782524532  , 0.127758920161 );
                        kernels[755] = compute_kernel(x,   -0.175979585355  , 0.715679200542  , -0.026857141379 );
                        kernels[756] = compute_kernel(x,   -2.17713741815  , -1.553207620633  , 1.722237054786 );
                        kernels[757] = compute_kernel(x,   0.499981564114  , 1.764179928509  , -2.935571799089 );
                        kernels[758] = compute_kernel(x,   0.494326986495  , 0.571725207153  , -1.186477602924 );
                        kernels[759] = compute_kernel(x,   -1.541714807734  , -0.708820763889  , 1.181080839398 );
                        kernels[760] = compute_kernel(x,   -0.781610167417  , -1.499493443996  , 0.369346516316 );
                        kernels[761] = compute_kernel(x,   -0.162954364271  , 1.422557765093  , -0.751619929845 );
                        kernels[762] = compute_kernel(x,   -0.927363235313  , -1.815332802625  , 1.045791785551 );
                        kernels[763] = compute_kernel(x,   0.303618619912  , 0.227954476672  , -0.993207526 );
                        kernels[764] = compute_kernel(x,   -0.103482836471  , 0.55883380476  , 0.069777897083 );
                        kernels[765] = compute_kernel(x,   1.144265826023  , 0.576022341284  , -1.196141106771 );
                        kernels[766] = compute_kernel(x,   0.534584203279  , 0.853187492734  , -1.862922872159 );
                        kernels[767] = compute_kernel(x,   -2.227072121009  , -1.845412741542  , 1.693246543248 );
                        kernels[768] = compute_kernel(x,   -0.162560513094  , -0.15878759512  , 0.07944140093 );
                        kernels[769] = compute_kernel(x,   -0.088319566138  , 0.73071917  , 0.340356004778 );
                        kernels[770] = compute_kernel(x,   -1.9478597684  , -1.357688017672  , 2.060459689404 );
                        kernels[771] = compute_kernel(x,   -0.219528272694  , -1.312568109297  , -0.142819187533 );
                        kernels[772] = compute_kernel(x,   -0.841025430763  , -0.784020611182  , 1.268052374014 );
                        kernels[773] = compute_kernel(x,   -0.307441481954  , -0.575609605828  , -1.118833076001 );
                        kernels[774] = compute_kernel(x,   0.0  , 1.0  , 2.0 );
                        kernels[775] = compute_kernel(x,   1.847617614573  , -0.995618840596  , 0.118926484727 );
                        kernels[776] = compute_kernel(x,   -0.003341069465  , 0.320701346025  , 0.203184331815 );
                        kernels[777] = compute_kernel(x,   -1.556441713606  , -0.780105744231  , 1.33464684986 );
                        kernels[778] = compute_kernel(x,   0.046704550705  , 0.223509165311  , 0.227258002412 );
                        kernels[779] = compute_kernel(x,   -1.117813274901  , -0.23075863585  , 1.154094320385 );
                        kernels[780] = compute_kernel(x,   -0.089576327534  , 0.466489617095  , 0.034668637638 );
                        kernels[781] = compute_kernel(x,   -0.07478597804  , -0.581495635816  , 0.058742308235 );
                        kernels[782] = compute_kernel(x,   -1.156919961699  , -0.539238165941  , 0.913357614418 );
                        kernels[783] = compute_kernel(x,   2.264823975429  , -0.72939678038  , -0.711615150859 );
                        kernels[784] = compute_kernel(x,   -1.186044871798  , -0.596285750273  , 0.805026096733 );
                        kernels[785] = compute_kernel(x,   1.594472464828  , -1.517498593558  , 0.576326226064 );
                        kernels[786] = compute_kernel(x,   -0.084220808071  , 0.451699502639  , 0.046705472937 );
                        kernels[787] = compute_kernel(x,   -0.069521616355  , -0.091308985261  , 0.070779143534 );
                        kernels[788] = compute_kernel(x,   1.907485485331  , -1.447773768263  , -0.037552374152 );
                        kernels[789] = compute_kernel(x,   -0.239166241373  , -0.021584159966  , 0.070779143534 );
                        kernels[790] = compute_kernel(x,   1.850283979582  , -1.422419286338  , 0.02263180234 );
                        kernels[791] = compute_kernel(x,   -0.058240841317  , -0.845604822538  , 0.046705472937 );
                        kernels[792] = compute_kernel(x,   1.112247818753  , 0.113639743635  , -1.518083115848 );
                        kernels[793] = compute_kernel(x,   -0.076495186379  , 0.559456050821  , 0.155036990622 );
                        kernels[794] = compute_kernel(x,   -0.014393950058  , 0.240412153261  , 0.191147496517 );
                        kernels[795] = compute_kernel(x,   -1.562047916959  , -0.752638388812  , 1.322610014562 );
                        kernels[796] = compute_kernel(x,   0.36915240124  , 1.043304080895  , 0.480031543677 );
                        kernels[797] = compute_kernel(x,   2.051537564152  , -1.861896973043  , -0.073662880047 );
                        kernels[798] = compute_kernel(x,   -0.155779663869  , 1.385589586887  , -0.663467809666 );
                        kernels[799] = compute_kernel(x,   -1.229823394724  , -0.809685973144  , 1.069836473296 );
                        kernels[800] = compute_kernel(x,   -0.17004585614  , 1.11302890619  , -0.33847325661 );
                        kernels[801] = compute_kernel(x,   1.993356112288  , -1.861896973043  , -0.025515538853 );
                        kernels[802] = compute_kernel(x,   1.107689929849  , 0.016447562921  , -1.421788433462 );
                        kernels[803] = compute_kernel(x,   2.279158536033  , -1.44566089477  , -0.181994397732 );
                        kernels[804] = compute_kernel(x,   -0.662480173361  , -0.475851961128  , 1.19020482628 );
                        kernels[805] = compute_kernel(x,   2.256528617623  , -0.980828726139  , -0.555136291981 );
                        kernels[806] = compute_kernel(x,   1.583920952015  , -1.532288708014  , 0.407810531887 );
                        kernels[807] = compute_kernel(x,   0.027470259528  , 0.278443876149  , 0.227258002412 );
                        kernels[808] = compute_kernel(x,   0.385765906296  , 0.808775123086  , 0.624473567258 );
                        kernels[809] = compute_kernel(x,   1.771478080427  , 1.579973948314  , -2.637508798595 );
                        kernels[810] = compute_kernel(x,   1.213911530763  , 0.589036279734  , -1.963446021887 );
                        kernels[811] = compute_kernel(x,   -0.159152501658  , 1.491233261575  , -0.904204515633 );
                        kernels[812] = compute_kernel(x,   1.745657639784  , -1.356920208031  , 0.16707382592 );
                        kernels[813] = compute_kernel(x,   -0.067197093014  , -0.716719539418  , 0.046705472937 );
                        kernels[814] = compute_kernel(x,   -0.181212683955  , 0.9059673038  , -0.603283633174 );
                        kernels[815] = compute_kernel(x,   -0.379321325181  , 0.136881352067  , -0.097736550643 );
                        kernels[816] = compute_kernel(x,   -0.16001850055  , 1.436298550737  , -0.807909833246 );
                        kernels[817] = compute_kernel(x,   -0.171846222257  , 1.155286376065  , -0.33847325661 );
                        kernels[818] = compute_kernel(x,   -0.64035162273  , -0.184275418987  , 1.382794191053 );
                        kernels[819] = compute_kernel(x,   -0.635178418824  , 0.667212599004  , 2.249446332535 );
                        kernels[820] = compute_kernel(x,   -1.178273671216  , -0.452610352696  , 1.033725967401 );
                        kernels[821] = compute_kernel(x,   1.785653114919  , 1.026401092945  , -2.312514245539 );
                        kernels[822] = compute_kernel(x,   -1.184950978461  , -0.659671955086  , 0.817062932031 );
                        kernels[823] = compute_kernel(x,   -0.166695807795  , 1.148947755584  , -0.33847325661 );
                        kernels[824] = compute_kernel(x,   -0.172712221149  , 0.690454207435  , 0.02263180234 );
                        kernels[825] = compute_kernel(x,   -1.525288542945  , -0.649107587617  , 1.250389002772 );
                        kernels[826] = compute_kernel(x,   -0.159858974438  , 1.427847056762  , -0.783836162649 );
                        kernels[827] = compute_kernel(x,   -0.057443210759  , -0.938571256264  , 0.046705472937 );
                        kernels[828] = compute_kernel(x,   1.631368575509  , -0.839266202057  , 0.299479014202 );
                        kernels[829] = compute_kernel(x,   0.133053755997  , -0.623753105692  , 0.046705472937 );
                        kernels[830] = compute_kernel(x,   -0.189690357317  , 0.289008243618  , -0.037552374152 );
                        kernels[831] = compute_kernel(x,   2.266464815434  , -0.723058159899  , -0.675504644964 );
                        kernels[832] = compute_kernel(x,   -0.186636571751  , 0.639745243585  , -0.061626044748 );
                        kernels[833] = compute_kernel(x,   1.620406852694  , -1.004070334571  , 0.191147496517 );
                        kernels[834] = compute_kernel(x,   -0.057101369091  , -1.042102057459  , 0.058742308235 );
                        kernels[835] = compute_kernel(x,   -0.2174251113  , 1.884227731417  , -1.181051727495 );
                        kernels[836] = compute_kernel(x,   -1.090420362586  , 0.293233990606  , 0.853173437926 );
                        kernels[837] = compute_kernel(x,   -1.200880800181  , -1.72033444896  , 1.26242583807 );
                        kernels[838] = compute_kernel(x,   -1.15591722614  , -0.340628057526  , 1.093910143893 );
                        kernels[839] = compute_kernel(x,   -0.158013029432  , 2.0257902555  , -0.735688821456 );
                        kernels[840] = compute_kernel(x,   1.634695834409  , -1.228034924911  , 0.504105214274 );
                        kernels[841] = compute_kernel(x,   -1.517426184585  , -0.670236322555  , 1.274462673368 );
                        kernels[842] = compute_kernel(x,   -0.168655700024  , 1.151060629078  , -0.33847325661 );
                        kernels[843] = compute_kernel(x,   0.006777443903  , 0.322814219519  , 0.203184331815 );
                        kernels[844] = compute_kernel(x,   -1.161295535048  , -0.545576786422  , 0.841136602628 );
                        kernels[845] = compute_kernel(x,   -0.014895317837  , 0.244637900249  , 0.191147496517 );
                        kernels[846] = compute_kernel(x,   1.453314645462  , -2.113328918802  , 0.865210273224 );
                        kernels[847] = compute_kernel(x,   1.184923357332  , -2.033039726039  , 0.299479014202 );
                        kernels[848] = compute_kernel(x,   0.368263612903  , 0.817226617062  , 0.455957873081 );
                        kernels[849] = compute_kernel(x,   -0.179047686726  , 0.669325472497  , 0.034668637638 );
                        kernels[850] = compute_kernel(x,   -1.460953941061  , -0.581495635816  , 1.274462673368 );
                        kernels[851] = compute_kernel(x,   0.618514503194  , 1.844083135035  , -0.904204515633 );
                        kernels[852] = compute_kernel(x,   -0.064074939114  , 0.643970990572  , 0.323552684799 );
                        kernels[853] = compute_kernel(x,   0.614138929846  , 1.510249123019  , -0.964388692124 );
                        kernels[854] = compute_kernel(x,   1.583784215348  , -1.868235593524  , 0.467994708379 );
                        kernels[855] = compute_kernel(x,   -0.160383131662  , 1.489120388081  , -0.856057174439 );
                        kernels[856] = compute_kernel(x,   -0.176745952829  , 0.650309611053  , 0.034668637638 );
                        kernels[857] = compute_kernel(x,   1.113957027092  , -0.063841629842  , -1.277346409881 );
                        kernels[858] = compute_kernel(x,   -0.634016157153  , 2.127208183201  , 2.490183038501 );
                        kernels[859] = compute_kernel(x,   -0.208993016827  , 0.534101568896  , 0.143000155324 );
                        kernels[860] = compute_kernel(x,   -1.481510020019  , -1.811188009192  , 1.33464684986 );
                        kernels[861] = compute_kernel(x,   -0.185451520636  , 0.369297436382  , -0.085699715345 );
                        kernels[862] = compute_kernel(x,   -0.163414127784  , 1.451088665194  , -0.831983503843 );
                        kernels[863] = compute_kernel(x,   -1.540511891886  , -0.69559080448  , 1.250389002772 );
                        kernels[864] = compute_kernel(x,   -0.401427086367  , 0.669325472497  , 0.23929483771 );
                        kernels[865] = compute_kernel(x,   -0.415374226414  , 0.643970990572  , 0.323552684799 );
